digraph Tree {
node [shape=box, style="filled, rounded", color="black", fontname=helvetica] ;
edge [fontname=helvetica] ;
0 [label="category <= 3.5\ngini = 0.32\nsamples = 160\nvalue = [198, 49]\nclass = 0", fillcolor="#eba06a"] ;
1 [label="liked <= 0.5\ngini = 0.37\nsamples = 110\nvalue = [129, 42]\nclass = 0", fillcolor="#edaa79"] ;
0 -> 1 [labeldistance=2.5, labelangle=45, headlabel="True"] ;
2 [label="gini = 0.0\nsamples = 64\nvalue = [100, 0]\nclass = 0", fillcolor="#e58139"] ;
1 -> 2 ;
3 [label="difficulty <= 1.5\ngini = 0.48\nsamples = 46\nvalue = [29, 42]\nclass = 1", fillcolor="#c2e1f7"] ;
1 -> 3 ;
4 [label="answered <= 0.5\ngini = 0.46\nsamples = 38\nvalue = [22, 40]\nclass = 1", fillcolor="#a6d3f3"] ;
3 -> 4 ;
5 [label="gini = 0.0\nsamples = 14\nvalue = [22, 0]\nclass = 0", fillcolor="#e58139"] ;
4 -> 5 ;
6 [label="gini = 0.0\nsamples = 24\nvalue = [0, 40]\nclass = 1", fillcolor="#399de5"] ;
4 -> 6 ;
7 [label="category <= 2.5\ngini = 0.35\nsamples = 8\nvalue = [7, 2]\nclass = 0", fillcolor="#eca572"] ;
3 -> 7 ;
8 [label="category <= 1.5\ngini = 0.22\nsamples = 7\nvalue = [7, 1]\nclass = 0", fillcolor="#e99355"] ;
7 -> 8 ;
9 [label="answered <= 0.5\ngini = 0.44\nsamples = 3\nvalue = [2, 1]\nclass = 0", fillcolor="#f2c09c"] ;
8 -> 9 ;
10 [label="gini = 0.0\nsamples = 2\nvalue = [2, 0]\nclass = 0", fillcolor="#e58139"] ;
9 -> 10 ;
11 [label="gini = 0.0\nsamples = 1\nvalue = [0, 1]\nclass = 1", fillcolor="#399de5"] ;
9 -> 11 ;
12 [label="gini = 0.0\nsamples = 4\nvalue = [5, 0]\nclass = 0", fillcolor="#e58139"] ;
8 -> 12 ;
13 [label="gini = 0.0\nsamples = 1\nvalue = [0, 1]\nclass = 1", fillcolor="#399de5"] ;
7 -> 13 ;
14 [label="liked <= 0.5\ngini = 0.17\nsamples = 50\nvalue = [69, 7]\nclass = 0", fillcolor="#e88e4d"] ;
0 -> 14 [labeldistance=2.5, labelangle=-45, headlabel="False"] ;
15 [label="gini = 0.0\nsamples = 29\nvalue = [43, 0]\nclass = 0", fillcolor="#e58139"] ;
14 -> 15 ;
16 [label="answered <= 0.5\ngini = 0.33\nsamples = 21\nvalue = [26, 7]\nclass = 0", fillcolor="#eca36e"] ;
14 -> 16 ;
17 [label="gini = 0.0\nsamples = 17\nvalue = [26, 0]\nclass = 0", fillcolor="#e58139"] ;
16 -> 17 ;
18 [label="gini = 0.0\nsamples = 4\nvalue = [0, 7]\nclass = 1", fillcolor="#399de5"] ;
16 -> 18 ;
}